16 100
document -0.0024414996 0.0026622412 -0.0030177636 0.0032341545 0.002786876 -0.0008083662 -0.0027568194 -0.0009830123 -0.0049753767 -0.004350617 0.0034021356 0.0030122376 0.0042746733 0.00018962767 0.003801113 -0.0026230237 0.002360707 0.00026423734 -0.0008372508 -0.004098737 -0.002427893 -0.0008150853 0.0043672943 -0.0017755051 -0.0045722127 -0.0015989904 0.0027475185 -0.0041078446 0.004874073 -0.0028241226 0.0025529547 -0.0019859953 0.0040683937 -0.00040076894 -0.0038113804 -0.0010060021 0.0024440982 0.0017245926 0.00023956454 0.00284771 -0.002846039 0.0038492999 0.0016536568 0.0039764848 -0.0003665 -0.0044846153 0.004130576 0.003010376 -0.0017798992 -0.0003580926 0.0025686924 -0.0026307274 -0.0017510224 0.0024429525 0.00011701276 0.0002906901 0.0030633255 -0.00046290536 0.002154974 0.0027690046 -0.004710548 0.0028129166 0.0047868816 0.00038892095 -0.00030217474 0.0015879645 0.0011575058 0.0023696022 -0.0039787227 0.0020108104 -0.0029138487 0.003001348 -0.0024293053 -0.0018413435 -0.00040246436 -0.0034308885 0.0026239043 -0.0006414246 0.0010767326 -0.001527828 -0.0034052425 0.0020104947 0.0012726536 -0.0047812676 -0.00026684217 -0.0021302279 0.0028905654 0.0006117975 0.004667976 0.004074055 0.004560285 -0.0042071445 -0.0018929217 0.0014760091 0.003931424 -0.0037244433 -0.001845 -0.001824976 -0.0028342532 -2.6469741e-05
. -0.0041004736 -0.0027194712 0.0010469322 0.00062158186 -0.0018801956 -0.0015030601 0.0032424412 -0.0005869675 0.0017328393 0.00012286747 0.0017745806 -0.0016778995 -0.0031682982 0.0009024289 -0.002109839 -0.001413259 -0.0004667966 0.0017740566 0.000328197 -0.0007897914 -0.0005152504 0.001964113 -0.0023776742 -0.004761663 0.0045866235 0.0003130172 0.000609546 -0.0013744796 0.004973117 -0.0021416391 -0.00014895058 -0.0015008085 -0.0035400125 0.002675997 0.0022052764 -0.002765613 0.004051513 -0.003591642 0.0019005724 0.0035336567 -0.0004974829 -0.004302799 -0.0012803557 0.0039181737 0.0016872004 0.0036168993 -0.0041583222 -0.00015153804 -0.0021095357 -0.0034735303 0.0005388865 0.0040862774 0.00336288 0.004151371 -0.0017072302 -0.0024312565 -0.0037227275 0.0042935372 -0.0010740067 -0.0017289297 0.0019181393 0.004456712 0.00029076292 -0.0036153304 0.002901229 -0.00023714038 0.0029860097 0.0017823804 0.0027286687 -0.0043160003 -0.003940437 -0.0022906398 -0.0044645644 -0.0015521056 -0.0012064347 -0.0042758537 0.00086552114 0.0026265057 0.0037394904 -0.002833117 -0.0047758757 -0.00017355519 -0.003919489 -0.0044361106 0.0023026362 -0.0030940967 0.00017921107 0.0026075623 -0.002337694 0.001890552 -0.0020482966 0.00046177875 -0.0042872857 -0.0028012008 0.00044126317 0.00094388 0.00047522978 -0.0022617436 6.371814e-05 0.0010545779
An 0.00045450663 0.004436099 0.0039507137 -0.0009581368 0.000297003 -0.0043252134 -0.0026612924 0.001249592 -0.0015046098 0.00076681003 -0.0014694001 0.000514778 -0.0016055335 0.0033684834 0.0003666166 0.001743224 -0.0035959329 -0.0031242324 0.0022795657 -0.003995213 -5.4477252e-05 0.0005296486 0.0026788032 0.0019175542 -0.0013888761 -0.0020922534 0.001937779 0.004383937 0.0016247694 -0.00018707933 -0.0042990893 0.0016142719 0.0024632234 -0.0038598035 0.0037308203 -0.0029143766 0.0012566657 0.0039099893 -0.0027804847 0.0040106853 0.0025951567 0.00035107904 0.0021342654 0.00085914414 -0.0047586453 -0.0010269042 0.0006831338 -0.004525474 0.0010775562 -0.004711639 0.0034466465 0.0034376555 -1.6933078e-05 -0.0015454612 0.0023151056 -0.0009870452 0.0017257092 0.0003589589 0.003645675 0.0005959462 -0.0046915296 0.0034501525 0.0018074722 0.0024117017 0.00083569705 0.0046538855 0.003423852 0.0039658276 0.0007236818 -0.004423515 -0.0006075208 0.00051253027 0.00039985962 -0.0032502294 -0.00041225238 0.0023462437 -0.0025996326 0.004107149 -0.0012764209 -0.0032468664 -0.0022359414 -0.0009990385 0.004542103 -0.0006529179 -0.0007912242 0.003360325 0.0018487424 -0.0033761056 -0.0010442528 -0.0011413186 -0.0012571233 0.0009306536 -0.0029226418 0.000864059 0.004255251 0.001850186 -0.0036970393 0.00069014996 0.0035170058 -0.0038225844
alpha 0.0018881202 -0.004869971 0.0043811793 0.002559348 -0.0015890101 0.0010451972 0.00015278965 -0.00034838266 -0.0035088656 -0.0047521023 -0.0045895167 0.0029220858 0.0027522373 0.0014029043 -0.00072774955 -0.00055810454 0.0014454443 0.0010411647 0.0012097372 -0.0038327603 0.0047029145 0.0029854365 0.0047035 0.0043523093 -0.004651859 0.0017591394 0.004266224 -0.0038129902 0.004958371 -0.0032669974 0.0031596303 0.0047236932 0.0034692257 -0.00093507 0.0045342813 6.8942834e-05 0.0014489184 -0.001838048 -0.002278684 0.0029034466 0.00085205736 -0.0021084368 0.00045776783 -0.0010344159 0.0019410963 0.0010302529 -0.0004672608 8.253256e-05 -0.0016346633 0.00080226443 -0.0035933058 -0.00078265864 -0.0032258085 0.0024759204 0.003960787 0.0020550333 0.003911504 0.0029159433 -0.004822663 0.0033707318 0.003724062 -0.0047519654 0.0029956568 -0.0038559877 -0.00039288768 0.00048104816 0.0049866545 -0.0037095896 0.0030405773 0.0016084854 -0.0012439053 0.0024622465 0.0011552576 0.0044392305 -0.0013323192 -0.0027468295 0.004174218 -6.658489e-05 0.0013191131 0.0020181395 0.0018369665 -0.00016258162 0.003538379 0.0018563041 -0.0032484948 0.0028829111 -0.0020609435 -0.002266827 0.0014924807 0.0006612849 -0.0029357513 -0.00072275737 0.001243277 -0.0025977541 0.0030796533 0.0029825673 -0.0015845315 -0.0012469542 0.0003269138 0.0043858197
A 0.0016741558 -0.0030330643 0.0022808313 0.0023177718 0.00043722065 -0.0040280954 0.00090314413 -1.7361848e-05 0.0005765229 -0.004498533 0.0036012412 -0.0015675676 0.0026574316 -0.003165546 -0.00018638611 -0.0047094426 -0.00043233877 -0.0019026641 0.0002703239 0.0033512241 0.004409055 0.00035029885 0.0021921173 0.0034637444 -0.0005171675 0.004545735 0.0035924432 0.0035563656 0.003225461 -0.0044178762 -0.0047042784 -0.004195616 0.0037089617 -0.0010336807 0.004287216 -0.0025971506 0.0033658855 -0.004820193 0.0022760988 1.716079e-05 0.00047287127 0.0045622583 0.0047598872 0.00409092 0.0005341232 -0.0026142392 0.00087286736 0.00013144642 -0.0011586685 0.0033569469 0.004293879 0.00455343 -0.0041279364 0.002924969 0.0047250376 -0.0016153272 -0.0026661581 -0.0010117248 0.004473774 -0.0037094688 0.0049739964 0.003124245 -1.9261672e-05 0.0010497731 0.001972948 -0.0041590547 -0.0031627207 0.002842752 -5.7397643e-05 -0.0040448406 0.000808146 -0.0020377222 0.00064292003 -0.0035266902 -0.0014045356 0.0042358246 -0.00011017686 0.0019722409 -0.0018918718 0.0016137146 -0.0037083973 -0.003982373 -0.003678063 -0.0033410788 -0.003164414 0.0016929298 -0.0005534725 0.004003994 -0.004245907 -0.0047158343 0.0009644159 0.0024662174 -0.0033272705 0.004012711 -0.0024423455 -0.0031026388 0.0009809092 -0.0041874847 0.0010675223 0.0030877714
beta 0.003743356 0.00021161156 -0.002909301 0.004125661 -0.0029668007 0.0003126825 -0.001439684 -0.000168481 0.003990266 -0.0036568367 0.004441967 0.003429252 0.00018017615 -0.00015334818 -0.0011368367 -0.0021360514 -0.00088570395 -0.0019869783 -0.0033013318 -0.00044312075 0.0002661081 -0.003510357 -0.003233308 -0.00043190914 -0.004761064 0.0020811204 -0.0029852907 0.004230036 0.0027818773 0.0018448213 -0.0026554521 0.0011446438 0.0042705475 -0.0044535846 0.004005239 0.0020996577 0.00046694293 -0.003607849 0.0044554304 -0.00089918455 0.0018468095 0.002293918 -0.004753772 0.0012785645 0.003751387 -0.0021154112 0.0018938128 0.004984136 0.0024177844 -0.00270631 0.0034612366 -0.004654206 0.0036440322 -0.0039294995 0.002895528 -0.0037733766 -0.001184096 -0.00399314 0.0045858454 0.0017191936 -0.0039358437 -0.0016338127 -0.00284268 0.004469588 -0.0041535604 0.004384745 0.00096402364 -0.00039687462 0.0016041183 -6.940294e-05 0.0017858704 -0.0022357204 -0.0015059361 -0.0040499116 0.004991062 0.0044031427 -0.0049636215 -0.0029000482 0.0025252586 0.0021435416 -0.0049952157 -0.00021829373 0.0013426712 -0.0024403303 -0.0038500773 0.004240161 0.0039671473 0.004008952 -0.0025368643 0.0026436145 -0.0042260517 0.0004473895 0.0045803254 -0.00070878427 0.0025206278 -0.004137151 0.0019618429 0.0016121517 -0.0019282704 0.0038450414
Guten 0.0034294147 0.004860444 -0.00025210052 -0.0018588414 0.0041052927 -0.0024723122 -0.0014861092 -0.0012874842 0.002136088 -0.0011080373 0.0041350666 -0.004067449 -0.0012351716 0.0035775905 0.0037986555 -0.0014449296 0.0004983759 0.003026001 0.004404513 0.004813408 -0.0040530106 0.0007294376 0.0040421793 -0.0018258285 -0.002402396 -0.004906327 -0.0030815003 -0.0033890223 0.0023616531 -0.004299454 -0.0036964952 -0.0035665503 0.003018041 -0.004565864 0.00082226645 0.0020182857 -0.0037301362 0.0024829898 -0.0009288248 0.0017192251 -0.0012965556 3.5595228e-06 0.004721865 0.0048464686 0.0023025498 0.003702205 0.004949758 -0.004539007 0.0019840063 -0.0029576696 -0.0009937168 0.000103123224 -0.001177745 -0.0019089864 0.0032235011 0.0025657956 -0.0024551624 0.0033255522 0.001719222 -0.0037243427 0.0025645834 0.0013194086 0.00079549954 -0.00046431817 -0.00077348575 0.0020740323 -0.002846582 -0.002921426 -0.003769507 0.0023694022 0.0024003629 -0.002420934 0.00016945373 -0.003734174 0.0016313093 0.004127602 0.0026981407 -0.0026971828 -0.0032135956 0.0030265306 0.0034016776 0.0023937337 0.003846718 -0.001558362 -0.0019783792 0.003711128 -0.00075324776 -0.004271307 -7.8306985e-05 -0.0026852721 0.0007047572 -0.0039740293 0.0031592418 0.0040917816 0.002398232 0.00470978 -0.0013968947 -0.00067698985 -0.00081492565 -0.0023714378
Morgen -0.0027647389 -0.00165523 -0.0019889122 0.0010062242 -0.0011128715 -0.0002351954 -0.0005690547 0.0009988828 -0.00063758116 0.0022030536 0.0043891384 -0.0010613985 -0.00071360136 0.00042894064 -0.001624101 0.0003770822 0.0023616536 0.0014282087 -0.002201712 0.004129854 -0.0049796975 -0.0037899816 -0.0021038977 -0.004797624 -0.001846284 0.004836848 -0.003513073 -0.0019479514 0.003561036 0.00076273916 0.0044907737 -0.0045598145 0.003961691 0.0030116106 -0.0006420566 -0.002012444 0.0009832038 0.0036666526 -0.003959946 0.0030173499 0.0025428752 -0.0019988327 0.00036612994 -0.0034942052 -0.0024825402 -0.0001904953 0.00031636388 -0.0018817584 -0.001994629 -0.003368816 -0.0033570996 9.468585e-05 -0.004735687 -0.0003580289 -0.0030916769 -0.00059669075 0.0044109784 0.0038608958 0.0049506444 -0.0028130137 0.0033393928 -0.0030989011 0.00088807865 -0.003926438 0.002928918 0.0037896635 -0.0027044688 -0.0010629243 0.0035761043 -0.0038274939 0.0025733106 -0.0034445776 -0.00036200622 0.00442687 -0.0038874939 0.0022858547 -0.0023163906 -0.00060768554 0.0013693583 0.0022262633 0.0011497234 0.002028857 -0.0041253166 0.002969742 0.004723909 7.579663e-05 0.0017363384 0.0033184947 -0.0023619384 -0.0032514478 -0.0029962582 0.0006468781 0.0041198363 -0.0043025627 -0.002353323 -0.001122134 0.0005510322 0.0016046414 0.004140772 -0.0020707916
! 0.0045024334 0.0027586261 -0.004168525 -0.0046916953 0.0013007353 0.0031210382 -0.001647693 0.0012055119 0.0008567899 0.0016159393 -0.0048138904 0.0030816605 -0.0011385316 -0.0019692793 -0.0030813157 -0.0005466932 -0.0016428173 -0.004831786 -0.0030214575 -0.0016228524 0.00052419247 -0.0026904976 -0.00027470576 -0.0019229911 0.0026939013 0.002731179 0.003269703 0.003030719 0.0049863216 0.0024619128 0.0041072764 -0.003073072 0.0044880887 0.000178443 -0.00017910694 0.00200671 -0.0028563165 0.0014518006 0.0015831698 -0.0034801771 -0.0026872416 0.0019475168 0.0034483355 -0.0013642039 0.0026902328 0.003035191 0.0016704621 0.0021501398 -0.003947881 -0.0025943848 0.004515421 -0.004830352 -0.0045219744 0.0017965677 -0.0040092496 0.0004314 -0.0014204412 0.0024111834 0.0038998148 0.0022701253 0.004637725 -0.003063268 -0.0025410107 0.0009910116 -0.0006260153 -0.001885008 -0.0013280835 0.0015923687 -0.0013109463 0.0048416336 -0.0031041582 -0.00096817303 0.0019970466 -0.0033314412 -0.0028834767 -0.0047600525 -0.0011369265 -0.00034893697 0.00045400544 -0.0046579023 0.0038107797 -0.0035111788 0.0040133856 0.00058702537 0.002503973 -0.0036464727 -0.0038738656 0.0048073665 0.0043803263 0.0020458028 0.002790679 0.0028383117 -0.0019580924 -0.0027021705 -0.0043442445 0.001778704 0.000675053 -0.0012009745 0.0043040398 0.0030539278
Gamma 0.0026621649 -0.0013703739 0.0034093978 -0.00034116808 -0.0012389037 0.0035969368 -0.0018197824 -0.0044063684 0.004577261 -0.0003880278 -0.0024039021 0.0003071902 -0.0029581364 0.0043909308 -0.00060222443 -0.004519123 -0.003968453 -0.0022766357 -0.0038699517 -0.004667635 0.0047831195 -0.0047989762 -0.0022871862 0.0004137572 -0.0028970998 0.0022697086 0.0028497018 -0.001976761 -0.0004728688 -0.0010816936 0.004662756 0.0012168521 -0.0007817179 0.0015722952 -0.004804627 -0.0034418474 0.00068838755 -0.0001465824 0.0025688335 0.0041350345 0.004814666 0.004809203 0.00072711613 -0.001111898 -0.0037285227 0.0016860311 -0.0024064619 -0.003132566 -0.0010391959 0.0028348153 -0.0023731848 -0.00049101724 0.0021573913 0.0015866164 -0.0028550755 0.0022652026 -0.0042335694 -0.0031263395 -0.0035470976 -0.00037139785 -0.0013457751 -0.00168188 7.757455e-05 -0.0039195097 -0.0030782842 0.0037985505 0.0044277674 -0.0043184157 0.0013571817 0.0017855695 -0.00478527 -0.0022202292 -0.0014358945 0.0011318959 7.535665e-05 0.0008562724 0.002362428 -0.0013033763 0.0003171355 0.0025629513 -2.576198e-05 -0.003753246 -0.0037639996 -0.0029721754 0.0036223093 0.0024616923 0.0027309302 0.0038770994 0.002943916 0.0012121705 0.0019360383 0.0028073434 0.0035419539 -0.00011635096 -0.0044448758 -0.00052990287 -0.003316455 1.8549092e-05 0.0038556403 0.0012297839
manuscript 0.004701038 -0.002378868 0.004095595 -0.0032783851 1.8522522e-06 -0.0028252488 0.0049357316 0.0016924487 0.0046944995 0.0044564395 0.0045536314 -0.002349694 -0.00078925403 0.0002722328 -0.0031433413 -0.001092141 -0.0006446195 0.003527045 -0.00034183735 -0.00083714933 0.0047497973 0.0042616115 -0.0039653513 0.004342475 0.0016931975 -0.0016309634 0.0036682428 0.0022432462 -0.0006490945 -0.0012069221 0.0028840972 -0.0012509734 -0.00026692747 -0.0028267903 0.0016368373 -0.0013004191 0.0019842137 0.0040330407 -0.004253278 -0.003619222 0.0044923495 0.00078661443 0.0012071556 3.296983e-05 0.004708061 -0.0047144596 -0.0015247369 -0.0035599354 0.0013167547 -0.00024025442 0.00436286 0.0020057354 -0.0038927512 -0.0020972663 0.0018508428 -0.0030851813 0.0008661056 -0.0036541237 -0.0020354649 0.0044537974 -0.00063550833 0.0033946328 0.0033400306 0.0048425286 0.0036432724 -0.004654885 -0.004068785 -0.0017586005 0.00079630484 0.0042748046 0.0030685172 -0.003921711 -0.0018448798 0.0031241314 0.0035834361 -0.0029391062 0.004619662 -0.0024192114 -0.00057429547 0.0024677652 0.004037772 -0.001609944 0.0038339824 0.0026536677 0.00434099 0.0024547772 0.004633673 0.0013025425 0.00053788105 -0.0026454765 -0.0011094719 -0.0038826228 0.0009582813 0.0040060556 0.004882644 -0.0040814723 0.00020897704 -0.0006390425 -0.0026006422 -0.0005216479
is -0.003755483 -0.003301317 -0.0014022777 0.0029535305 0.0011294896 -0.004975284 -0.0019360895 0.0012328547 -0.002717905 -0.0042167045 -0.003763033 -0.0012737255 4.021874e-07 -0.0024717401 -0.004885624 0.0019940874 -0.0033418804 0.003349569 0.0018654512 0.003623696 0.001186137 0.0031101767 -0.00085506396 0.0021710764 0.004183015 -8.286928e-05 0.0049782046 0.0028968763 -0.0047605485 -0.002528099 -0.0031497325 0.00019208278 0.00013188142 0.0022528365 -0.0045248815 -0.003997022 -0.004306078 -0.0017580093 0.0009856259 0.003576809 -0.0026128103 5.1700583e-05 0.0029994508 0.00031103985 -0.0025435323 -0.0036151486 0.0008364182 0.0007532633 0.0012888507 0.00048571738 -0.00449662 -0.004614203 0.0031542724 0.0020822552 -0.0043828376 -0.0034415536 -0.002259388 -0.00093460735 -5.792806e-05 -0.0030941097 -0.0025817852 -0.0004873572 -0.0036812911 -0.0017729339 0.0012393966 0.0036165018 -0.001202442 7.831331e-05 -0.004862277 0.00059383654 0.0041709407 0.0045306124 0.004931332 0.004892966 -0.00024100856 0.0026919534 -0.0011147335 -0.00047123953 0.003064002 -0.0020715902 0.0031978278 -0.0034299137 0.00032530204 0.004824343 -0.0049293907 -0.0026423684 0.0023834647 -0.0027277803 0.00073168863 -0.0038805313 0.003004749 -0.004511237 0.0017792446 0.0021262034 0.0024104088 -0.0025174543 0.0007552907 -0.0018472071 0.0038324923 0.0031321878
old -0.0032450801 -0.0039299084 0.0044173063 -0.0009658849 -0.0032674274 0.0025474324 -0.004739885 -0.00049507344 0.0026908077 0.0003239399 -0.0037147107 -0.0023711356 0.0009334138 0.00378804 -0.00060972566 -0.0015695011 0.00446995 6.822717e-05 0.0021929187 0.00027320767 -0.001184987 -0.0021498024 -0.0005342075 -0.0011676968 0.00044372035 0.0039373 8.753836e-05 -0.0029547361 0.0047969576 0.0023173483 -0.0011711065 -0.00015625864 -0.0027526394 0.0010746414 -0.0040586544 -0.00047068793 0.001917582 0.003646237 -0.003230085 0.0041708765 0.0032032146 0.0015712704 -0.0003697445 0.0036146594 -0.0019311118 0.002335655 0.0043824157 -0.0022944212 -0.001772809 0.001283673 0.0048775664 -0.0031320082 -0.0044684773 -0.004754773 0.00010091298 0.0007441174 -0.0011520217 0.0045795226 0.001374688 0.00016946725 0.0019863714 0.0009166107 -0.0006286825 0.0028358619 -0.00097075413 -0.0018966421 0.0010386738 0.0025581226 0.00052640314 -0.0033089055 0.004358855 0.0024601386 -0.0048751235 -0.0030193075 -0.004058792 -0.0047098137 -0.0007450031 0.0048297774 0.001209092 0.0048512635 -0.001590967 -0.0018783887 0.0031453478 0.0048805685 0.0036928437 0.0005561524 0.0015976261 0.0005647232 -0.0028275847 0.0011730316 0.0021590241 -0.0019563204 -0.0025435577 -0.0013672211 -0.0025127095 -0.0012790285 0.0032227659 -0.0014482845 -0.0038991799 0.0042413063
Whither -0.0007631689 0.0044974885 0.0007905966 -0.0017676108 -0.0028273626 -0.00021587599 0.0008316885 0.0030037349 0.002780281 -0.00027260877 0.0019942427 0.0027417296 0.0035471385 -0.002202324 0.004044471 0.004818515 0.0011502585 0.004097428 0.003510604 -0.003859362 0.0043354547 0.0004444542 -0.003839659 0.0019653058 0.003850148 0.002203317 -0.001328547 0.0017423279 0.0024905722 0.002586553 -0.0005412692 -0.0004041821 0.0005727422 0.0010149329 0.0017060885 0.00023487696 0.0003205126 -0.0032546078 -7.2810144e-05 -0.003210945 -0.0011975669 -0.0030940212 0.00080517563 0.0031084153 -0.0037003781 -0.004115673 -0.0003230099 0.00039131026 0.002235217 0.00046945165 -0.0028117215 0.0047978954 -0.0029784734 -0.0034467527 -0.00045037584 0.00052709476 0.00030103544 -0.00066110864 0.0013484834 0.0027125278 -0.0013211321 0.0032659275 -0.0016556175 0.00433441 0.003417478 0.0037884363 -0.0032352484 0.0018978223 -0.0013201614 0.00076113245 -0.0045416662 0.004100834 -0.0002661127 -0.0018913368 0.002160487 0.0048342487 -0.0042803627 0.0039796294 -0.0018684597 -0.0034780134 0.0006058078 0.0026842295 -0.0036863 -0.003953114 -0.0033189831 -0.0026436718 0.00038416442 0.002730481 -0.0012279236 -0.0042050257 -0.00490764 -0.004861468 0.0016588226 0.001872003 -0.0016509696 0.003875119 0.00067106896 -0.0040097944 -0.0021128976 -0.0014862005
my -0.0018176188 0.0033607406 -0.0035372279 0.0018053108 0.001095863 -0.004025671 -0.002924011 -0.0035349706 -0.004522294 -0.0045871423 0.0022916864 -0.00032015747 0.0015302243 -0.0007119408 0.00041049853 -0.0012452255 0.0023819264 0.0036988212 -0.002218131 0.0016831509 -0.004402069 0.0017049494 0.0012499338 0.0022972506 -0.0029931157 -0.0041830437 -0.0029228649 -0.00138637 -0.00094385265 0.0044127097 0.0035575829 -0.0039807386 0.002871936 -0.00046944636 -0.004734573 -0.0023000413 0.0022770902 -0.0039218976 0.0016399691 -0.00010771873 -4.1468807e-05 0.0047153635 -0.0014356595 -0.0023078998 -0.0001962118 -0.003685027 0.003173948 0.004090568 -0.0009597701 0.0039111637 0.0030843827 -0.0029217065 -0.0025506949 -8.1546335e-05 -0.0019486394 0.0024999266 0.0041065635 -0.0018886861 0.0008076825 -0.0007506557 -0.0030251883 -0.0005129569 0.0019550517 -0.0026383905 0.0037525473 -0.0009616232 -0.004006773 -0.0006854718 0.004944105 0.0004245803 -0.004183869 -0.00441928 0.0012952104 -0.0017136197 0.0010025973 -0.00013659633 0.0011127364 0.0019265097 -0.00019064345 -0.0004104972 -0.0037912687 0.0044078166 -0.0017706271 0.0031288355 0.0043712924 -0.004192102 -0.0029823184 -0.0048719156 0.002320926 -7.809069e-06 -0.0030024142 0.0029156522 -0.0019344421 0.0042075478 -0.0037422548 -0.0024741746 -0.0032506823 -0.0020732614 0.0029413283 0.0021064014
? 0.003961918 -0.00026270843 -0.0015671387 0.0025730792 0.0035651156 0.0007769739 -0.004652478 -0.0016130169 -0.0036912146 0.0007580299 0.0039227926 -0.004789223 0.0046608266 0.00409196 -0.0036957865 -0.0030017435 0.001677875 -0.003780605 -0.0033382932 -0.003754456 -0.0030508253 -0.00238902 0.0005047556 -0.002177889 0.0043866285 -0.0011191125 0.0041431105 0.0038996032 -0.0042294255 -0.0034224617 0.002337518 -0.004536331 0.0033727002 -0.0024432992 0.004290331 0.0025432727 -0.00052912976 -0.0014515637 -0.0025270176 -0.0014445543 -0.0001776662 -0.004468615 -0.0033812174 -0.0017503812 -0.0007415136 0.0026283795 -0.0049867774 0.00016566199 0.00052365864 0.0045845313 -0.0008845254 -0.0012481856 -0.0048576277 -0.0031538373 -0.00076760136 0.00095473445 0.0042585647 -0.0023114595 0.0047564628 0.0021402242 -0.004370199 0.00019998303 -0.0025438452 -0.0020420237 0.0028924267 0.0008380747 -0.0017932308 -0.0015735596 -0.0035846569 -0.0014971666 0.0022634345 0.002811926 0.0033306985 -0.0026270295 0.00030303164 -0.004955168 -0.0036245398 0.0015519194 0.00027920102 0.004073103 -0.0021790364 0.00017083537 0.0035218215 -0.0014295318 -0.004786346 0.0024004525 0.0020345876 0.0033458434 -0.0032985478 0.004370732 -0.0008176568 -0.00074592617 -0.0039813276 -0.0019242774 -0.003285251 0.0035158829 -0.0007117525 -0.0036558893 0.0025821724 -0.0011988522
